|--- SGR脳纰抽吀鐩愬博 <= 6.267
|   |--- SGR脳纰抽吀鐩愬博 <= 1.535
|   |   |--- SGR <= 0.574
|   |   |   |--- class: 1
|   |   |--- SGR >  0.574
|   |   |   |--- class: 1
|   |--- SGR脳纰抽吀鐩愬博 >  1.535
|   |   |--- SGR脳鏂窛 <= 32.383
|   |   |   |--- class: 1
|   |   |--- SGR脳鏂窛 >  32.383
|   |   |   |--- class: 0
|--- SGR脳纰抽吀鐩愬博 >  6.267
|   |--- SGR脳鏂窛 <= 117.515
|   |   |--- SGR脳鏂窛 <= 23.160
|   |   |   |--- class: 0
|   |   |--- SGR脳鏂窛 >  23.160
|   |   |   |--- class: 1
|   |--- SGR脳鏂窛 >  117.515
|   |   |--- class: 0
