|--- SGR脳纰抽吀鐩愬博 <= 6.267
|   |--- SGR脳纰抽吀鐩愬博 <= 1.535
|   |   |--- SGR脳纰抽吀鐩愬博 <= 1.067
|   |   |   |--- class: 1
|   |   |--- SGR脳纰抽吀鐩愬博 >  1.067
|   |   |   |--- class: 1
|   |--- SGR脳纰抽吀鐩愬博 >  1.535
|   |   |--- SGR脳鏂窛 <= 3.945
|   |   |   |--- class: 0
|   |   |--- SGR脳鏂窛 >  3.945
|   |   |   |--- class: 1
|--- SGR脳纰抽吀鐩愬博 >  6.267
|   |--- 鏂窛/寤朵几 <= 69.161
|   |   |--- SGR脳鏂窛 <= 38.805
|   |   |   |--- class: 0
|   |   |--- SGR脳鏂窛 >  38.805
|   |   |   |--- class: 0
|   |--- 鏂窛/寤朵几 >  69.161
|   |   |--- class: 1
